{
  "input_scaling": {
    "mean": [
      1991.2278439693162,
      6.5118328708992985,
      7.0406397910886245
    ],
    "scale": [
      18.150828506048626,
      3.453363711880304,
      4.064457010107429
    ]
  },
  "station_mapping": {
    "58562": 0,
    "58464": 1,
    "58665": 2,
    "58457": 3,
    "58569": 4,
    "58472": 5,
    "58549": 6,
    "58667": 7,
    "58543": 8,
    "58646": 9,
    "58556": 10,
    "58477": 11,
    "58666": 12,
    "58647": 13,
    "58752": 14
  },
  "model_architecture": [
    {
      "class_name": "Dense",
      "config": {
        "name": "dense",
        "trainable": true,
        "dtype": "float32",
        "batch_input_shape": [
          null,
          3
        ],
        "units": 64,
        "activation": "relu",
        "use_bias": true,
        "kernel_initializer": {
          "class_name": "GlorotUniform",
          "config": {
            "seed": null
          }
        },
        "bias_initializer": {
          "class_name": "Zeros",
          "config": {}
        },
        "kernel_regularizer": null,
        "bias_regularizer": null,
        "activity_regularizer": null,
        "kernel_constraint": null,
        "bias_constraint": null
      },
      "weights": [
        [
          [
            0.0029608560726046562,
            -0.0024074011016637087,
            -0.010480511002242565,
            0.11151182651519775,
            0.08406245708465576,
            -0.33792242407798767,
            -0.20604947209358215,
            0.022805994376540184,
            -0.10324101150035858,
            -0.0015725074335932732,
            -0.015606038272380829,
            -0.005347723141312599,
            -0.0014559400733560324,
            -0.0019767351914197206,
            0.3462505638599396,
            -0.077051542699337,
            -0.021813658997416496,
            0.20433300733566284,
            0.06010819599032402,
            -0.1734635829925537,
            -0.3464278280735016,
            0.028232160955667496,
            -0.003679691581055522,
            0.002010135445743799,
            0.16271641850471497,
            -0.001158611150458455,
            0.10570592433214188,
            -0.022023143246769905,
            0.06643348187208176,
            -0.04651869460940361,
            -0.009203785099089146,
            -0.17383109033107758,
            0.08458486944437027,
            0.0017046986613422632,
            0.06218886375427246,
            0.22333404421806335,
            0.034026093780994415,
            -0.14340917766094208,
            -0.025105582550168037,
            0.03464323654770851,
            -0.028479278087615967,
            0.028343165293335915,
            -0.0011000726372003555,
            -0.02635333500802517,
            0.016165291890501976,
            0.2750703692436218,
            -0.0836515948176384,
            0.22979043424129486,
            0.004127360414713621,
            -0.017114808782935143,
            0.05586957186460495,
            0.19123460352420807,
            0.018141714856028557,
            -0.250654399394989,
            0.0031055558938533068,
            -0.0934179425239563,
            0.02201577089726925,
            -0.13788466155529022,
            -0.2753646671772003,
            0.0691886693239212,
            0.00023285392671823502,
            -0.049581944942474365,
            -0.05135076865553856,
            0.25701263546943665
          ],
          [
            -0.38281679153442383,
            -0.3139333128929138,
            -0.044515226036310196,
            -0.40660491585731506,
            0.3550758361816406,
            -0.12725333869457245,
            -0.0963839441537857,
            -0.4690719544887543,
            -0.39370548725128174,
            -0.4699436128139496,
            0.5084525942802429,
            -0.25032806396484375,
            -0.3074663281440735,
            -0.3325142562389374,
            0.3419763147830963,
            0.5074942111968994,
            -0.3156743347644806,
            -0.3697156310081482,
            -0.42265769839286804,
            0.5082548260688782,
            0.039284877479076385,
            -0.3803428113460541,
            -0.18392692506313324,
            -0.4447072446346283,
            0.074867382645607,
            -0.26011088490486145,
            0.4436015486717224,
            -0.20976920425891876,
            -0.6201676726341248,
            -0.2755125164985657,
            0.3965517282485962,
            -0.029162868857383728,
            -0.3537601828575134,
            0.3370586633682251,
            0.21629676222801208,
            -0.2639673054218292,
            -0.19640308618545532,
            0.01072306465357542,
            -0.17310768365859985,
            0.35312584042549133,
            0.42797309160232544,
            0.3879057765007019,
            -0.3809360861778259,
            0.519801139831543,
            -0.42027410864830017,
            -0.14068743586540222,
            -0.01624220982193947,
            0.317988783121109,
            -0.5241349339485168,
            -0.11806241422891617,
            0.3691692650318146,
            -0.0838923528790474,
            0.49071013927459717,
            -0.19818426668643951,
            -0.39109307527542114,
            0.4301144480705261,
            -0.3950985074043274,
            -0.3988751471042633,
            0.1622849851846695,
            -0.34630757570266724,
            -0.308329701423645,
            -0.4556635916233063,
            -0.003322931006550789,
            0.24353544414043427
          ],
          [
            0.08318685740232468,
            -0.2859500050544739,
            -0.39011046290397644,
            0.01171632669866085,
            -0.022785063832998276,
            -0.16164147853851318,
            0.047993093729019165,
            -0.09440727531909943,
            -0.11048323661088943,
            -0.2564846873283386,
            -0.036380019038915634,
            0.0028296015225350857,
            -0.0004584110574796796,
            0.5466452240943909,
            0.05487445369362831,
            -0.126833975315094,
            -0.009173542261123657,
            -0.1759830117225647,
            -0.0633629560470581,
            -0.015659289434552193,
            -0.37113118171691895,
            0.026746824383735657,
            0.05930004641413689,
            0.13403813540935516,
            0.15671788156032562,
            -0.24261531233787537,
            -0.16915132105350494,
            0.8809000849723816,
            -0.04605885222554207,
            0.02929629571735859,
            -0.36715832352638245,
            -0.04914187639951706,
            0.009297503158450127,
            -0.04181307181715965,
            -0.15579071640968323,
            0.09601752460002899,
            0.7588756084442139,
            -0.009342005476355553,
            0.5054120421409607,
            -0.180212140083313,
            0.47237226366996765,
            -0.2642531991004944,
            -0.12915216386318207,
            0.14085394144058228,
            -0.08709946274757385,
            -0.00863155722618103,
            0.06532517075538635,
            0.13042807579040527,
            0.1369771510362625,
            0.03309360519051552,
            -0.09214571118354797,
            0.288961261510849,
            -0.2230709195137024,
            0.1776488870382309,
            0.0037230681627988815,
            -0.037040356546640396,
            -0.035029929131269455,
            0.018818983808159828,
            0.15360276401042938,
            -0.1986599713563919,
            -0.00030341302044689655,
            0.010209948755800724,
            0.567307710647583,
            -0.19449296593666077
          ]
        ],
        [
          0.007558263372629881,
          0.11172760277986526,
          0.5169547200202942,
          -0.05896049737930298,
          -0.31478366255760193,
          -0.3586706519126892,
          0.09939394891262054,
          -0.15779642760753632,
          0.047455430030822754,
          0.06844568252563477,
          -0.18641315400600433,
          -0.11199384182691574,
          0.03556795418262482,
          0.04390241205692291,
          0.3843802511692047,
          -0.2367202341556549,
          -0.1449979990720749,
          0.3452988862991333,
          0.013920004479587078,
          -0.23132729530334473,
          0.2121635228395462,
          -0.26304522156715393,
          -0.09266100823879242,
          -0.004422654397785664,
          0.3492056727409363,
          0.08454225957393646,
          -0.24335239827632904,
          -0.34947308897972107,
          -0.42712894082069397,
          -0.09405498951673508,
          -0.22468751668930054,
          0.5464116930961609,
          -0.03343542292714119,
          -0.2982766032218933,
          -0.22528550028800964,
          0.18321669101715088,
          0.2491743415594101,
          0.3652234375476837,
          -0.3626731336116791,
          -0.19492244720458984,
          -0.3469141721725464,
          0.16361787915229797,
          0.13160812854766846,
          -0.18939314782619476,
          -0.11013981699943542,
          0.29024070501327515,
          0.39984130859375,
          -0.1697930246591568,
          -0.002603938104584813,
          -0.07276157289743423,
          -0.29368385672569275,
          0.2805725336074829,
          -0.2519266605377197,
          -0.014566032215952873,
          0.04800484701991081,
          -0.2979799211025238,
          0.14641770720481873,
          -0.20196504890918732,
          0.26604554057121277,
          0.17821775376796722,
          0.03811653330922127,
          -0.02829129248857498,
          0.35495272278785706,
          -0.002193720545619726
        ]
      ]
    },
    {
      "class_name": "Dense",
      "config": {
        "name": "dense_1",
        "trainable": true,
        "dtype": "float32",
        "units": 64,
        "activation": "relu",
        "use_bias": true,
        "kernel_initializer": {
          "class_name": "GlorotUniform",
          "config": {
            "seed": null
          }
        },
        "bias_initializer": {
          "class_name": "Zeros",
          "config": {}
        },
        "kernel_regularizer": null,
        "bias_regularizer": null,
        "activity_regularizer": null,
        "kernel_constraint": null,
        "bias_constraint": null
      },
      "weights": [
        [
          [
            0.2331492304801941,
            -0.05510547757148743,
            0.32845422625541687,
            0.23240499198436737,
            -0.1342327743768692,
            -0.1444399058818817,
            -0.21272699534893036,
            0.12547042965888977,
            0.18853987753391266,
            -0.13384181261062622,
            0.049299199134111404,
            0.04568818584084511,
            -0.29421594738960266,
            -0.01528148166835308,
            -0.23349401354789734,
            0.2538329064846039,
            -0.13300128281116486,
            0.031006187200546265,
            -0.13306540250778198,
            -0.3086351752281189,
            -0.038683149963617325,
            0.2839113473892212,
            0.20352031290531158,
            -0.0805065780878067,
            0.22912494838237762,
            0.05564439669251442,
            -0.061080727726221085,
            0.17426332831382751,
            0.06100180000066757,
            0.2517469823360443,
            0.144725039601326,
            0.06140902265906334,
            -0.15369068086147308,
            -0.34474316239356995,
            0.14614853262901306,
            0.16295026242733002,
            -0.06126544252038002,
            -0.019439809024333954,
            -0.0182320736348629,
            -0.09821688383817673,
            -0.11559814214706421,
            -0.1820918619632721,
            -0.10800918936729431,
            0.027787014842033386,
            0.2626051604747772,
            0.08619792759418488,
            0.14721745252609253,
            0.002804102608934045,
            -0.33535236120224,
            0.12374433130025864,
            0.06918079406023026,
            -0.19114984571933746,
            0.148980975151062,
            0.08160444349050522,
            -0.260944128036499,
            -0.007853498682379723,
            -0.08205258101224899,
            0.19074027240276337,
            -0.10950618237257004,
            0.11244229227304459,
            -0.05266302451491356,
            0.2551657259464264,
            -0.20247477293014526,
            0.007636290974915028
          ],
          [
            -0.38471731543540955,
            0.1627994030714035,
            0.17791099846363068,
            0.14321132004261017,
            0.026714444160461426,
            -0.8794187903404236,
            0.044400181621313095,
            0.05255390331149101,
            -0.0923655703663826,
            0.013665808364748955,
            -0.08832158148288727,
            -0.7138457298278809,
            0.15267539024353027,
            0.022431880235671997,
            0.14333125948905945,
            0.10858166962862015,
            -0.09431321918964386,
            -0.0010483538499101996,
            -0.08902867883443832,
            -0.6301963925361633,
            0.2788994610309601,
            0.07964743673801422,
            -0.04993482679128647,
            -0.1497984081506729,
            -0.05600322410464287,
            0.18414188921451569,
            0.009617334231734276,
            0.23955553770065308,
            -0.7378211617469788,
            -0.1847042441368103,
            0.11151532828807831,
            0.12345074862241745,
            -0.17137116193771362,
            -0.0813908725976944,
            0.002214620355516672,
            -0.2143421620130539,
            -0.12597593665122986,
            -0.061409637331962585,
            -0.1494303047657013,
            0.13501033186912537,
            -0.9411199688911438,
            -0.1171315610408783,
            -0.783123791217804,
            0.08150655031204224,
            0.210008442401886,
            0.007221092935651541,
            -0.0171615332365036,
            0.03176496550440788,
            -1.0983192920684814,
            0.07299221307039261,
            0.004679001402109861,
            0.1487106829881668,
            0.07329122722148895,
            0.1215510442852974,
            -0.031612955033779144,
            0.06326242536306381,
            -0.0188351571559906,
            0.05957628786563873,
            0.009340960532426834,
            0.18017251789569855,
            0.1440449059009552,
            0.31078365445137024,
            -0.047702353447675705,
            0.10973149538040161
          ],
          [
            0.04131362959742546,
            0.21987557411193848,
            -0.004012348596006632,
            0.11093170195817947,
            0.308576762676239,
            -0.008033149875700474,
            0.16177350282669067,
            -0.16494505107402802,
            -0.04060205817222595,
            -0.14115673303604126,
            0.05361752212047577,
            -0.1034373864531517,
            0.21306265890598297,
            -0.056880347430706024,
            0.14270249009132385,
            -0.09452071040868759,
            -0.14723841845989227,
            0.1006966307759285,
            0.5163361430168152,
            0.08765657991170883,
            -0.15277495980262756,
            0.11688177287578583,
            -0.12567070126533508,
            -0.17250345647335052,
            -0.053123172372579575,
            -0.06969323754310608,
            0.03082389198243618,
            -0.04883676767349243,
            -1.5445832014083862,
            -0.2908908426761627,
            0.45752573013305664,
            -0.11538287997245789,
            -0.11272753030061722,
            0.41360732913017273,
            -0.06840977072715759,
            0.15147541463375092,
            -0.032980140298604965,
            -0.15515725314617157,
            -0.12728089094161987,
            0.3983416259288788,
            -0.14835277199745178,
            -0.005923092365264893,
            -0.08234410732984543,
            0.08761391043663025,
            -0.25114330649375916,
            0.2199881672859192,
            0.19152133166790009,
            -0.002053104806691408,
            -0.1966463327407837,
            0.17935298383235931,
            -0.16970720887184143,
            -0.025587541982531548,
            0.21258334815502167,
            -0.07322487235069275,
            0.19549943506717682,
            -0.10539638996124268,
            -0.15189673006534576,
            -0.18551938235759735,
            0.215458944439888,
            0.2571483552455902,
            0.10392863303422928,
            -0.03173460811376572,
            -0.21647341549396515,
            0.2266691029071808
          ],
          [
            0.5896835327148438,
            0.046617645770311356,
            0.3331269323825836,
            0.13563692569732666,
            0.0912759006023407,
            -0.6175177693367004,
            -0.06665494292974472,
            0.004964115098118782,
            0.13241420686244965,
            0.15585803985595703,
            0.3070618510246277,
            -0.20492538809776306,
            -0.25819796323776245,
            0.23723560571670532,
            -3.198253398295492e-05,
            0.2758718729019165,
            -0.03539349138736725,
            0.25184476375579834,
            0.1759454309940338,
            -0.1155068501830101,
            0.2050919085741043,
            -0.10367313027381897,
            0.02397073060274124,
            0.09389252960681915,
            0.29377347230911255,
            0.09431584179401398,
            0.07744931429624557,
            -0.030974501743912697,
            0.25754645466804504,
            0.25751474499702454,
            0.1725800484418869,
            -0.01953747496008873,
            0.04183690622448921,
            -0.6809491515159607,
            0.05845003202557564,
            -0.0431755930185318,
            0.1307331621646881,
            0.19424274563789368,
            0.1877378225326538,
            0.23672738671302795,
            -0.2551160156726837,
            -0.016365334391593933,
            -0.14569596946239471,
            0.2372078001499176,
            0.28630146384239197,
            0.027282534167170525,
            0.3112041652202606,
            -0.11662131547927856,
            0.06279410421848297,
            -0.1301024854183197,
            -0.1295846551656723,
            -0.36137449741363525,
            0.03318340703845024,
            0.14567504823207855,
            0.03423303738236427,
            -0.053108099848032,
            0.08433036506175995,
            -0.17165713012218475,
            0.21524037420749664,
            -0.012109358794987202,
            0.053553055971860886,
            0.04499976336956024,
            -0.0994158536195755,
            0.0026093958877027035
          ],
          [
            -0.08650275319814682,
            0.27585843205451965,
            -0.21503083407878876,
            0.0822877362370491,
            -0.013758491724729538,
            0.26549240946769714,
            0.18139846622943878,
            -0.09884956479072571,
            0.2107008844614029,
            0.06294818222522736,
            0.36278727650642395,
            0.20908281207084656,
            -0.15355154871940613,
            0.24993304908275604,
            -0.2487318515777588,
            0.3836381137371063,
            0.3119586706161499,
            0.26538214087486267,
            -0.027200350537896156,
            0.25553080439567566,
            0.09905204176902771,
            -0.05581125617027283,
            0.28227439522743225,
            -0.19978143274784088,
            -0.21985529363155365,
            0.2264731526374817,
            0.3333912193775177,
            -0.06818222999572754,
            -0.19762323796749115,
            0.34139561653137207,
            0.19494090974330902,
            0.3491860628128052,
            0.011505021713674068,
            -0.12433356046676636,
            0.345620721578598,
            -0.22226369380950928,
            0.3187926411628723,
            0.16875259578227997,
            0.09939362853765488,
            0.15903113782405853,
            0.4451899528503418,
            -0.18612760305404663,
            0.2013714760541916,
            0.08608820289373398,
            0.09882604330778122,
            0.3962850868701935,
            -0.2448703646659851,
            0.28769904375076294,
            0.2570803165435791,
            0.31358131766319275,
            0.043247345834970474,
            -0.2194516807794571,
            -0.13908542692661285,
            0.11561373621225357,
            -0.11191674321889877,
            0.24189059436321259,
            0.33869898319244385,
            -0.013308517634868622,
            0.0030461535789072514,
            0.01667381450533867,
            0.03174683824181557,
            0.23083260655403137,
            -0.21851316094398499,
            0.04580572247505188
          ],
          [
            -0.6055862903594971,
            0.026043642312288284,
            -0.21205942332744598,
            -0.2738800048828125,
            -0.0796838104724884,
            0.2232591062784195,
            0.25857558846473694,
            -0.19256125390529633,
            -0.2061029076576233,
            -0.023709645494818687,
            0.1906532645225525,
            -0.07999704778194427,
            0.1625187247991562,
            0.1346680372953415,
            0.26628485321998596,
            -0.0941925123333931,
            0.15393270552158356,
            0.17216168344020844,
            0.17858536541461945,
            0.38860002160072327,
            -0.00022264401195570827,
            0.21810133755207062,
            0.20425035059452057,
            0.05484576150774956,
            -0.061614882200956345,
            0.25309234857559204,
            -0.26100999116897583,
            0.0103225102648139,
            0.06347785890102386,
            0.0660356879234314,
            -0.22684070467948914,
            -0.002279122592881322,
            0.13406039774417877,
            -0.12743143737316132,
            -0.16297858953475952,
            -0.17742446064949036,
            0.14842894673347473,
            -0.16125860810279846,
            0.12478853762149811,
            -0.054400939494371414,
            -0.09319201111793518,
            0.16005240380764008,
            -0.07852672040462494,
            -0.08051378279924393,
            -0.14201605319976807,
            -0.08873580396175385,
            -0.024685058742761612,
            -0.020404279232025146,
            0.0531451441347599,
            -0.13270458579063416,
            0.0018307013669982553,
            0.2977389991283417,
            -0.20067203044891357,
            0.13982002437114716,
            -0.9715992212295532,
            0.1996374875307083,
            -0.1407584547996521,
            0.16575312614440918,
            0.11134189367294312,
            -0.26274076104164124,
            0.009279750287532806,
            -0.12751904129981995,
            -0.19934609532356262,
            0.042870063334703445
          ],
          [
            0.27853718400001526,
            0.21606163680553436,
            0.3132812976837158,
            0.021887971088290215,
            0.04657220095396042,
            0.029340321198105812,
            -0.11157480627298355,
            0.05044039711356163,
            -0.13600684702396393,
            0.1403665542602539,
            0.05200127512216568,
            0.02068992517888546,
            -0.07710134238004684,
            -0.0718805342912674,
            0.21334488689899445,
            -0.015880098566412926,
            0.0991758480668068,
            0.15163317322731018,
            0.3165307939052582,
            -0.03787476196885109,
            -0.2479316145181656,
            0.03672751039266586,
            0.015972789376974106,
            -0.0945076197385788,
            -0.345829039812088,
            -0.1318749487400055,
            -0.19789397716522217,
            0.08656127005815506,
            0.0033471279311925173,
            -0.12798134982585907,
            0.4076617360115051,
            -0.12732481956481934,
            0.08407876640558243,
            0.14100031554698944,
            -0.2017405927181244,
            0.12944217026233673,
            -0.0665016695857048,
            0.04437650740146637,
            -0.2285422831773758,
            -0.008546187542378902,
            0.11204373836517334,
            -0.12929266691207886,
            -0.0667271837592125,
            -0.14548473060131073,
            -0.09001466631889343,
            -0.03445366770029068,
            0.31190377473831177,
            0.3081771731376648,
            -0.030563488602638245,
            0.19090154767036438,
            0.10956235975027084,
            0.20798590779304504,
            0.12036992609500885,
            -0.19522498548030853,
            -0.21207746863365173,
            0.04064400866627693,
            0.11653609573841095,
            -0.05161077901721001,
            -0.01876576617360115,
            -0.05212721601128578,
            -0.24375654757022858,
            -0.038356438279151917,
            0.16879649460315704,
            -0.11260314285755157
          ],
          [
            -0.2421647161245346,
            -0.027273647487163544,
            0.06361139565706253,
            -0.1514286994934082,
            0.09759504348039627,
            0.05655672028660774,
            -0.32165026664733887,
            -0.11483927816152573,
            -0.145645409822464,
            -0.23332341015338898,
            -0.2135980874300003,
            0.15151339769363403,
            -0.09795808047056198,
            0.06844509392976761,
            0.011718244291841984,
            0.19813819229602814,
            0.2533533573150635,
            0.04786079749464989,
            -0.21298357844352722,
            -0.2701351046562195,
            0.11025728285312653,
            -0.08384103327989578,
            0.017022540792822838,
            0.1242651417851448,
            0.11234390735626221,
            0.18094280362129211,
            0.3639412522315979,
            0.284074991941452,
            -0.3931189179420471,
            0.18556374311447144,
            -0.19333124160766602,
            0.06875134259462357,
            0.13084925711154938,
            -0.5708927512168884,
            0.17158327996730804,
            0.007686033844947815,
            -0.12513074278831482,
            0.27281203866004944,
            0.0738738477230072,
            0.06103777140378952,
            0.03401719406247139,
            0.053681835532188416,
            -0.15459111332893372,
            0.3677774667739868,
            0.0283970944583416,
            0.11674927175045013,
            -0.10436903685331345,
            -0.115674689412117,
            -0.0763387605547905,
            -0.005283307284116745,
            -0.25148794054985046,
            -0.2506316304206848,
            -0.02367517724633217,
            0.03963545709848404,
            -0.0028384116012603045,
            -0.12852127850055695,
            0.17396427690982819,
            0.06188644468784332,
            -0.06319405883550644,
            0.07006146758794785,
            0.22796334326267242,
            -0.08480878919363022,
            0.0853351503610611,
            0.22966764867305756
          ],
          [
            -0.22286061942577362,
            0.08881544321775436,
            0.01936919614672661,
            0.00882355123758316,
            -0.005769715178757906,
            -0.09716680645942688,
            -1.0406931638717651,
            0.1668892353773117,
            0.014775905758142471,
            0.11523780226707458,
            -0.09159921854734421,
            -0.09863822907209396,
            0.07455460727214813,
            0.23647813498973846,
            -0.18349464237689972,
            0.2641603350639343,
            0.21744100749492645,
            0.21088285744190216,
            0.22523269057273865,
            -0.846337616443634,
            0.07350961118936539,
            -0.035895295441150665,
            0.0802101343870163,
            0.2012864351272583,
            0.0494125597178936,
            0.09964847564697266,
            0.1760461926460266,
            0.14282050728797913,
            -0.5220475196838379,
            0.13355788588523865,
            0.07155062258243561,
            0.11814545094966888,
            0.12111593037843704,
            -0.2661387622356415,
            0.08000465482473373,
            -0.12036199122667313,
            0.016364581882953644,
            0.08671022951602936,
            0.2486392706632614,
            0.008154522627592087,
            -0.19386132061481476,
            -0.08401685953140259,
            -0.0733163058757782,
            -0.07984411716461182,
            0.26896902918815613,
            0.19247786700725555,
            0.048594411462545395,
            0.2773813009262085,
            -0.3098841607570648,
            0.18344233930110931,
            0.11799385398626328,
            0.10811149328947067,
            0.24330374598503113,
            0.15980513393878937,
            -0.18861830234527588,
            0.25531473755836487,
            0.12068464607000351,
            0.15168100595474243,
            0.05937270447611809,
            0.1288316547870636,
            -0.16075928509235382,
            0.2764758765697479,
            -0.00040214735781773925,
            -0.09241428971290588
          ],
          [
            -0.5326353907585144,
            -0.04298420250415802,
            0.0415264293551445,
            0.031173162162303925,
            0.161802276968956,
            -0.28808459639549255,
            0.15682795643806458,
            -0.24571864306926727,
            0.12294816225767136,
            0.06642359495162964,
            0.02571246214210987,
            -0.05098707228899002,
            -0.08786041289567947,
            -0.200192391872406,
            -0.08147681504487991,
            0.0539681501686573,
            0.15235969424247742,
            -0.012868541292846203,
            0.07570333778858185,
            -1.2517207860946655,
            -0.019327262416481972,
            0.29871121048927307,
            0.22574210166931152,
            0.037583157420158386,
            0.2050044685602188,
            0.18765419721603394,
            -0.02638295106589794,
            -0.044113267213106155,
            -0.7408100962638855,
            0.3667735159397125,
            0.22857880592346191,
            0.18548642098903656,
            0.10393418371677399,
            -0.1863585263490677,
            0.1545758843421936,
            -0.13405686616897583,
            0.04464783892035484,
            0.17036844789981842,
            0.1373075395822525,
            -0.13593527674674988,
            -0.3159865140914917,
            0.13630641996860504,
            -0.1504807472229004,
            0.014224045909941196,
            0.27038148045539856,
            0.10561411827802658,
            0.09515518695116043,
            -0.0790376216173172,
            -0.2731066346168518,
            0.16691862046718597,
            -0.027382096275687218,
            0.13523942232131958,
            0.1435914784669876,
            0.08733241260051727,
            -0.30181431770324707,
            0.22865332663059235,
            0.17370036244392395,
            0.009632689878344536,
            0.007887164130806923,
            -0.0038120890967547894,
            0.07596343010663986,
            0.33216309547424316,
            0.011944055557250977,
            -0.03973913937807083
          ],
          [
            0.35423773527145386,
            0.4813917875289917,
            -0.12064958363771439,
            0.14319349825382233,
            0.3584197461605072,
            0.2305160015821457,
            0.1958536058664322,
            -0.1897139847278595,
            0.4012468457221985,
            0.037498634308576584,
            0.37064775824546814,
            0.3701667785644531,
            -0.22282548248767853,
            0.5125460624694824,
            -0.12368887662887573,
            0.21213027834892273,
            0.3257865905761719,
            0.43937841057777405,
            0.15695539116859436,
            0.2507537305355072,
            0.3686598539352417,
            0.031496960669755936,
            0.2304074764251709,
            0.03028881549835205,
            -0.04643578827381134,
            0.25416767597198486,
            0.22613272070884705,
            0.09250819683074951,
            0.053064510226249695,
            0.40836718678474426,
            -0.013279288075864315,
            0.39698526263237,
            -0.1098611056804657,
            -0.09224239736795425,
            0.16900350153446198,
            -0.1499273031949997,
            0.04888053238391876,
            0.20955470204353333,
            0.2895457446575165,
            0.2490239441394806,
            0.39788153767585754,
            -0.18940825760364532,
            0.03086566925048828,
            -0.07766053825616837,
            0.3211662769317627,
            0.4297448694705963,
            -0.015484772622585297,
            0.08170270174741745,
            0.15660008788108826,
            0.4346308708190918,
            0.2856004536151886,
            -0.37503936886787415,
            0.13736896216869354,
            0.2764591574668884,
            0.25736141204833984,
            0.2894759774208069,
            0.26095473766326904,
            -0.04382452741265297,
            0.2060621678829193,
            0.21322515606880188,
            0.2959548532962799,
            0.10020706057548523,
            0.03121761977672577,
            0.19967913627624512
          ],
          [
            -0.36237606406211853,
            0.15933026373386383,
            -0.011598557233810425,
            0.08628790080547333,
            0.0847289115190506,
            -0.35504186153411865,
            -0.4370545446872711,
            0.11481087654829025,
            -0.08830243349075317,
            -0.08450621366500854,
            -0.01831633411347866,
            -0.02427603118121624,
            -0.09213640540838242,
            -0.17236757278442383,
            -0.11526218801736832,
            0.18695247173309326,
            0.008135497570037842,
            0.10136643797159195,
            -0.09433894604444504,
            -0.05901539325714111,
            -0.16061937808990479,
            0.07400607317686081,
            -0.18864145874977112,
            -0.0456867590546608,
            0.34788864850997925,
            0.09920379519462585,
            0.2652265727519989,
            0.1836184561252594,
            0.04220395162701607,
            -0.029347175732254982,
            -0.0792076364159584,
            -0.02030741423368454,
            -0.24146738648414612,
            -0.28087690472602844,
            0.24052058160305023,
            0.028847038745880127,
            -0.03592122346162796,
            -0.004187094047665596,
            0.171600341796875,
            -0.07243403047323227,
            -0.230453759431839,
            -0.18802280724048615,
            0.08995261043310165,
            0.14912618696689606,
            0.12971103191375732,
            0.14451324939727783,
            0.03173638507723808,
            0.1466122567653656,
            0.06895631551742554,
            -0.07198653370141983,
            -0.24023252725601196,
            -0.01601400040090084,
            -0.07305705547332764,
            0.0008730122935958207,
            -0.28229978680610657,
            0.1004975438117981,
            0.1267731636762619,
            0.0214524045586586,
            -0.07733338326215744,
            0.1236492469906807,
            -0.004011560697108507,
            -0.18435952067375183,
            0.11460410803556442,
            0.09607087075710297
          ],
          [
            0.9197124242782593,
            0.1270783543586731,
            0.09502466022968292,
            0.12492810189723969,
            0.22029179334640503,
            -0.4889626204967499,
            -0.0768631100654602,
            -0.19299815595149994,
            0.300741583108902,
            0.100650854408741,
            0.30486249923706055,
            -0.17273415625095367,
            0.0043734037317335606,
            0.3271646201610565,
            0.1134524866938591,
            0.1450289636850357,
            -0.19912505149841309,
            0.1969406008720398,
            -0.021033374592661858,
            -0.14280672371387482,
            0.03717472776770592,
            0.20119717717170715,
            0.34041574597358704,
            -0.21491479873657227,
            0.0802062600851059,
            0.0505027137696743,
            0.016950899735093117,
            0.08278267830610275,
            0.15185460448265076,
            0.27345889806747437,
            -0.1431877613067627,
            -0.07112514972686768,
            0.05254751071333885,
            -0.22527046501636505,
            0.33419084548950195,
            0.19556216895580292,
            0.2286689728498459,
            0.08021894097328186,
            0.3147324323654175,
            0.2968827486038208,
            0.05176127329468727,
            0.17093749344348907,
            -0.04302787780761719,
            -0.05079818516969681,
            0.3003135025501251,
            0.3134973645210266,
            0.28870877623558044,
            -0.08539704978466034,
            -0.29807037115097046,
            0.13752657175064087,
            0.062404584139585495,
            -0.1617601215839386,
            0.042591892182826996,
            -0.1685878485441208,
            -0.18034115433692932,
            -0.025210637599229813,
            0.27081531286239624,
            0.0014707720838487148,
            0.13151852786540985,
            -0.11021503806114197,
            0.13080143928527832,
            -0.07156065106391907,
            -0.038165077567100525,
            0.17639382183551788
          ],
          [
            -0.6277007460594177,
            -0.16076259315013885,
            0.02167889103293419,
            0.10096120089292526,
            0.2019578516483307,
            -0.02360757254064083,
            -0.17469479143619537,
            -0.021295392885804176,
            0.013701222836971283,
            0.005257199052721262,
            -0.20319685339927673,
            -1.1206821203231812,
            0.24555142223834991,
            -0.13038818538188934,
            0.5217375159263611,
            -0.19717879593372345,
            -0.24154597520828247,
            -0.23021453619003296,
            0.01153380237519741,
            -0.42859014868736267,
            -0.24620459973812103,
            0.17630843818187714,
            0.2836665213108063,
            -0.21269075572490692,
            -0.011384443379938602,
            0.15016920864582062,
            0.06355026364326477,
            0.014873582869768143,
            0.39874267578125,
            -0.17814087867736816,
            0.2246282547712326,
            -0.1670617014169693,
            -0.128536656498909,
            0.261374294757843,
            0.137633815407753,
            -0.19367516040802002,
            -0.010028337128460407,
            0.112164705991745,
            0.20216190814971924,
            -0.05704466626048088,
            -0.9144381284713745,
            -0.19097618758678436,
            -0.7949446439743042,
            -0.09712323546409607,
            -0.2621074616909027,
            -0.05579238012433052,
            0.04015449434518814,
            -0.038517627865076065,
            -0.5716495513916016,
            0.006732886657118797,
            0.053358618170022964,
            0.3996725082397461,
            0.01638052798807621,
            -0.010489107109606266,
            -0.9624075293540955,
            -0.13714061677455902,
            -0.023736292496323586,
            0.03895175829529762,
            -0.15009371936321259,
            0.09686242043972015,
            0.12821930646896362,
            -0.0763208419084549,
            -0.0004253039660397917,
            -0.2267444133758545
          ],
          [
            0.34292250871658325,
            -0.18231673538684845,
            -0.1902654469013214,
            -0.0012856649700552225,
            0.012294798158109188,
            0.0548233799636364,
            0.08974740654230118,
            -0.011039703153073788,
            -0.16196498274803162,
            -0.0194400567561388,
            -0.13276702165603638,
            0.020978646352887154,
            0.18119299411773682,
            0.07541337609291077,
            0.2985929250717163,
            -0.2348073571920395,
            -0.1443256288766861,
            -0.13557235896587372,
            -0.07633288204669952,
            0.1279175877571106,
            -0.2580893337726593,
            -0.6751019358634949,
            -0.028159035369753838,
            -0.12285570800304413,
            -0.9511776566505432,
            -0.04525696113705635,
            -0.21886451542377472,
            -1.0806127786636353,
            0.1688837856054306,
            -0.15568067133426666,
            -0.0057159848511219025,
            -0.18777649104595184,
            -0.18504466116428375,
            0.36761119961738586,
            -0.17808547616004944,
            0.19373609125614166,
            0.07705259323120117,
            -0.35871657729148865,
            -0.023696213960647583,
            0.1504073590040207,
            -0.09338372200727463,
            0.01835937798023224,
            0.10375974327325821,
            -0.8633829355239868,
            -0.1254926472902298,
            -0.11059021204710007,
            -0.41158244013786316,
            0.22444871068000793,
            0.1351795792579651,
            -0.06174206733703613,
            -0.0576501339673996,
            0.10671693086624146,
            -0.5449474453926086,
            0.080460324883461,
            0.07023363560438156,
            0.03194499388337135,
            -0.3082987368106842,
            -0.17776767909526825,
            -0.0329497791826725,
            -0.06640102714300156,
            -0.2363974004983902,
            -0.5142809152603149,
            0.06960313767194748,
            -0.03859006240963936
          ],
          [
            0.04729612544178963,
            0.34394371509552,
            -0.943749189376831,
            0.20307834446430206,
            0.23750659823417664,
            0.2754357159137726,
            0.3368908166885376,
            0.17526452243328094,
            0.054161082953214645,
            -0.19767211377620697,
            0.3130600154399872,
            0.33557385206222534,
            -0.355244904756546,
            0.14238379895687103,
            -0.3074019253253937,
            0.208172008395195,
            0.12779907882213593,
            0.25981494784355164,
            0.2399335503578186,
            0.27713772654533386,
            0.10088013112545013,
            0.31459102034568787,
            0.1693500131368637,
            -0.1420694887638092,
            -0.21083541214466095,
            0.2636679410934448,
            -0.08357600122690201,
            -0.21828778088092804,
            -0.057393915951251984,
            0.03370320051908493,
            0.24194535613059998,
            0.051014356315135956,
            -0.0031826531048864126,
            -0.2140790820121765,
            0.3548212945461273,
            -0.14080935716629028,
            0.04227645322680473,
            0.23324400186538696,
            0.36673131585121155,
            0.11432656645774841,
            0.28818994760513306,
            0.05032144486904144,
            0.3545389175415039,
            0.10868296027183533,
            0.11987616121768951,
            0.21241185069084167,
            0.031509239226579666,
            0.2665916979312897,
            0.3144696354866028,
            0.0933646634221077,
            0.271146297454834,
            -0.16217616200447083,
            -0.9717522859573364,
            0.04399202764034271,
            -0.19421561062335968,
            0.27117919921875,
            0.08995528519153595,
            -0.18739230930805206,
            0.25691360235214233,
            0.0977085754275322,
            0.1630772203207016,
            -0.35665422677993774,
            -0.17629413306713104,
            0.31153973937034607
          ],
          [
            -0.3165283203125,
            -0.15203817188739777,
            0.013442647643387318,
            -0.12067057192325592,
            0.15588976442813873,
            -0.09333952516317368,
            -0.1895217001438141,
            0.16881060600280762,
            -0.09330067038536072,
            -0.03429563716053963,
            -0.14213083684444427,
            0.15638653934001923,
            0.1132911816239357,
            0.08699987083673477,
            0.0022486948873847723,
            0.45622169971466064,
            -0.0858803540468216,
            0.06265652924776077,
            -0.32900795340538025,
            -0.24646249413490295,
            0.07239653170108795,
            -0.06608369946479797,
            -0.09645535051822662,
            -0.12707661092281342,
            0.4136645495891571,
            0.15275754034519196,
            0.1874164491891861,
            0.3378109335899353,
            -0.31609535217285156,
            0.318969190120697,
            -0.07468173652887344,
            -0.027367329224944115,
            0.05096389353275299,
            -1.03065824508667,
            0.24983930587768555,
            -0.166094571352005,
            -0.12128902971744537,
            0.37593936920166016,
            0.09934699535369873,
            0.10031916946172714,
            -0.13730649650096893,
            -0.15291285514831543,
            -0.21660487353801727,
            0.17243167757987976,
            0.0067895883694291115,
            -0.052750710397958755,
            -0.029041575267910957,
            -0.243621364235878,
            -0.1733415424823761,
            -0.13774828612804413,
            -0.08154746145009995,
            0.033764563500881195,
            -0.16695554554462433,
            -0.08091758191585541,
            -0.7574732899665833,
            -0.07722591608762741,
            0.2829102873802185,
            -0.09162027388811111,
            0.17872881889343262,
            0.13902491331100464,
            -0.05133510380983353,
            0.1148238480091095,
            0.17097117006778717,
            0.020631978288292885
          ],
          [
            -0.26788878440856934,
            0.05784081295132637,
            0.3965161144733429,
            0.08541443198919296,
            0.35864657163619995,
            0.23950915038585663,
            -0.21010322868824005,
            -0.1277637481689453,
            0.2013023942708969,
            0.02851417474448681,
            -0.039793722331523895,
            -0.24739550054073334,
            0.2765965461730957,
            0.02379721961915493,
            0.39173299074172974,
            0.03069422021508217,
            0.12848316133022308,
            -0.2479037195444107,
            0.429525226354599,
            -0.02182617038488388,
            0.024904407560825348,
            0.14553305506706238,
            -0.09986154735088348,
            0.17999285459518433,
            0.10785653442144394,
            -0.21137529611587524,
            0.16151933372020721,
            0.12477221339941025,
            -0.7290534973144531,
            -0.18439891934394836,
            0.3199852406978607,
            0.1712910234928131,
            0.02172314003109932,
            0.44540104269981384,
            0.05092192068696022,
            -0.16734865307807922,
            0.17102466523647308,
            -0.15286098420619965,
            -0.11515477299690247,
            0.23312366008758545,
            -0.2704475522041321,
            -0.16573640704154968,
            -0.15369190275669098,
            0.13066484034061432,
            -0.16280534863471985,
            0.16153781116008759,
            0.2254602313041687,
            0.07717575132846832,
            -0.10253056138753891,
            -0.09389685094356537,
            -0.22810927033424377,
            0.37653857469558716,
            -0.12705621123313904,
            -0.0071463026106357574,
            0.02990647219121456,
            0.16031327843666077,
            -0.09800250083208084,
            -0.027608700096607208,
            -0.21983259916305542,
            -0.07503838837146759,
            -0.07266294211149216,
            0.234220489859581,
            -0.179990753531456,
            0.006419746205210686
          ],
          [
            0.038302741944789886,
            -0.11749444156885147,
            0.030264943838119507,
            0.012109124101698399,
            0.10518010705709457,
            -0.13313893973827362,
            -0.1685413420200348,
            -0.18918801844120026,
            0.18660813570022583,
            -0.07672012597322464,
            0.19701431691646576,
            0.06784564256668091,
            -0.17936398088932037,
            -0.005844089202582836,
            -0.0997079461812973,
            0.1646382361650467,
            0.0284592155367136,
            0.14534185826778412,
            -0.12005635350942612,
            -0.6056301593780518,
            0.1671779304742813,
            0.20570150017738342,
            0.3610544800758362,
            -0.10705281794071198,
            0.24147891998291016,
            -0.003320493269711733,
            0.23413103818893433,
            0.05980915203690529,
            -0.3650088906288147,
            0.27431586384773254,
            -0.12742707133293152,
            0.017452765256166458,
            -0.10132195055484772,
            -0.33504658937454224,
            0.05974983051419258,
            -0.06752189993858337,
            -0.03049996867775917,
            0.08021385222673416,
            0.17657572031021118,
            0.20986120402812958,
            -0.17721542716026306,
            -0.1332404911518097,
            -0.22329269349575043,
            0.2691735625267029,
            0.24469858407974243,
            -0.06960578262805939,
            0.001624050084501505,
            -0.03274881839752197,
            0.011020044796168804,
            0.17511452734470367,
            0.03869198262691498,
            -0.19075483083724976,
            0.1895560324192047,
            0.1468169391155243,
            -0.25890547037124634,
            -0.10956373810768127,
            0.054244961589574814,
            -0.11853913962841034,
            0.26413336396217346,
            0.2216339260339737,
            0.25582417845726013,
            0.07608890533447266,
            0.09533683955669403,
            -0.022656463086605072
          ],
          [
            -0.37491798400878906,
            -0.08685464411973953,
            -1.7196588516235352,
            0.21967032551765442,
            0.3149091899394989,
            0.04648040980100632,
            0.26446112990379333,
            -0.09971533715724945,
            0.07616663724184036,
            0.03706810250878334,
            0.04388018324971199,
            0.018334878608584404,
            -0.2838318645954132,
            0.016887156292796135,
            -0.3194911479949951,
            0.11193335801362991,
            0.18540364503860474,
            -0.024995137006044388,
            0.3076724410057068,
            0.3642720580101013,
            0.12596052885055542,
            -0.7155446410179138,
            0.052929624915122986,
            -0.07105202972888947,
            -0.1876770406961441,
            0.032417554408311844,
            0.29229557514190674,
            0.04815967008471489,
            0.12061678618192673,
            0.3643883764743805,
            -0.08844916522502899,
            0.3211694061756134,
            -0.1969800740480423,
            -0.21520929038524628,
            0.2529571056365967,
            0.19530361890792847,
            0.20510268211364746,
            0.21511778235435486,
            -0.053742893040180206,
            0.034916263073682785,
            0.393185019493103,
            0.00402030348777771,
            0.28843870759010315,
            -0.15892334282398224,
            0.34276971220970154,
            0.252330482006073,
            -1.3492538928985596,
            0.24661582708358765,
            0.238540381193161,
            -0.011373626068234444,
            0.24934957921504974,
            -0.13978713750839233,
            -1.590155005455017,
            0.06072007119655609,
            0.027082357555627823,
            0.22968629002571106,
            0.17497161030769348,
            0.02152225375175476,
            0.20711414515972137,
            0.22618518769741058,
            0.2644505500793457,
            -0.7030977606773376,
            0.14682158827781677,
            0.06255687773227692
          ],
          [
            -0.013092773966491222,
            -0.09766115248203278,
            -0.2327057272195816,
            -0.054151132702827454,
            -0.24175089597702026,
            -0.10107619315385818,
            0.22618058323860168,
            0.131618931889534,
            0.007250552531331778,
            -0.15267886221408844,
            -0.24355080723762512,
            0.08376818150281906,
            0.11432982236146927,
            0.06478256732225418,
            0.3586740493774414,
            -0.3473874628543854,
            0.009279261343181133,
            -0.1681613326072693,
            0.045055091381073,
            -0.08705054223537445,
            -0.383618026971817,
            -0.058639101684093475,
            0.13494530320167542,
            -0.18206678330898285,
            -0.16675464808940887,
            -0.1986706554889679,
            -0.26691269874572754,
            -0.057099174708127975,
            0.7810959219932556,
            0.11471958458423615,
            0.024647414684295654,
            -0.04450972378253937,
            -0.21758277714252472,
            0.01014263927936554,
            -0.15116262435913086,
            0.11549581587314606,
            -0.03670114651322365,
            -0.03112252615392208,
            0.196881964802742,
            -0.2911940813064575,
            0.05247297137975693,
            0.11451025307178497,
            0.20116761326789856,
            -0.40453654527664185,
            0.14134404063224792,
            -0.36655983328819275,
            -0.11643560975790024,
            0.12969012558460236,
            -0.20024019479751587,
            -0.28409165143966675,
            0.22147874534130096,
            0.30689528584480286,
            -0.2344420701265335,
            -0.054896432906389236,
            0.03200383484363556,
            -0.13951151072978973,
            0.022656824439764023,
            0.07838024944067001,
            -0.26089003682136536,
            -0.012418108992278576,
            -0.04833845794200897,
            -0.10550151020288467,
            -0.05036136880517006,
            0.15168051421642303
          ],
          [
            -0.8163482546806335,
            -0.023137670010328293,
            -0.20003455877304077,
            -0.2664993405342102,
            0.10300833731889725,
            0.017007820308208466,
            -0.2778674066066742,
            0.03178265318274498,
            0.013714935630559921,
            -0.19297823309898376,
            -0.01546528097242117,
            0.0055670784786343575,
            -0.35624146461486816,
            -0.005068871192634106,
            0.014115030877292156,
            -0.0034168504644185305,
            -0.03618502989411354,
            -0.07267304509878159,
            -0.25712454319000244,
            -0.15817056596279144,
            -0.18246209621429443,
            -0.07850391417741776,
            0.07275683432817459,
            0.06420345604419708,
            0.09797457605600357,
            0.1269172728061676,
            0.024817179888486862,
            0.04627072066068649,
            0.18944869935512543,
            0.14515356719493866,
            -0.009861544705927372,
            0.0952494814991951,
            -0.11874303221702576,
            -0.7222922444343567,
            -0.004331615287810564,
            -0.1534108966588974,
            -0.23507635295391083,
            0.1821742206811905,
            -0.02464507706463337,
            -0.08242820203304291,
            -0.03305570036172867,
            0.18792982399463654,
            -0.24566955864429474,
            -0.01838071271777153,
            -0.03831230103969574,
            -0.0631040558218956,
            -0.17048197984695435,
            -0.09383375942707062,
            -0.015988728031516075,
            -0.21679112315177917,
            -0.14318354427814484,
            -0.05789487063884735,
            0.03878423944115639,
            0.06825488805770874,
            -0.39341238141059875,
            -0.12551669776439667,
            0.24359853565692902,
            0.10563862323760986,
            0.18187125027179718,
            -0.12260942161083221,
            0.2437172830104828,
            0.11238092184066772,
            -0.10456695407629013,
            -0.0568569116294384
          ],
          [
            -0.3587365746498108,
            -0.011550282128155231,
            -0.13796907663345337,
            -0.10017570853233337,
            -0.10073235630989075,
            -0.12374900281429291,
            -0.49765968322753906,
            -0.028734907507896423,
            0.1447158008813858,
            -0.18011343479156494,
            -0.15558156371116638,
            -0.1458730697631836,
            -0.1270267218351364,
            -0.14446724951267242,
            0.136334627866745,
            -0.03361676633358002,
            -0.12087958306074142,
            -0.06654638797044754,
            -0.08426006138324738,
            0.048406392335891724,
            -0.10485637933015823,
            -0.01756189949810505,
            0.09525104612112045,
            -0.07615850865840912,
            0.35979023575782776,
            -0.030558273196220398,
            0.011707699857652187,
            0.1158672496676445,
            0.12374621629714966,
            0.024259371683001518,
            -0.1105421707034111,
            0.0385928712785244,
            0.09828940033912659,
            -0.0890384390950203,
            -0.06483831256628036,
            0.1479618102312088,
            0.11610422283411026,
            0.07409525662660599,
            0.24031083285808563,
            0.07328260689973831,
            0.0203293114900589,
            -0.13398170471191406,
            -0.23776566982269287,
            0.26915642619132996,
            -0.15681402385234833,
            -0.019134478643536568,
            0.05267157033085823,
            0.14844343066215515,
            -0.14021696150302887,
            0.15561555325984955,
            -0.13748127222061157,
            -0.005144819151610136,
            -0.1750408411026001,
            -0.08550526946783066,
            -0.4183216691017151,
            0.05089563503861427,
            0.18297944962978363,
            -0.03976081684231758,
            0.237836092710495,
            0.15043935179710388,
            -0.3248566687107086,
            -0.08919566124677658,
            -0.1488030105829239,
            0.03081110492348671
          ],
          [
            0.5112890601158142,
            -0.03446508198976517,
            0.2754002511501312,
            -0.0695023313164711,
            0.18998640775680542,
            -0.10850732773542404,
            0.024114610627293587,
            0.13601119816303253,
            0.05194095894694328,
            0.07152536511421204,
            0.17718517780303955,
            -0.2420358508825302,
            0.0057009123265743256,
            0.049443986266851425,
            -0.046822115778923035,
            0.1657170057296753,
            -0.04699259251356125,
            0.12182815372943878,
            -0.11380863189697266,
            -0.36044105887413025,
            0.14006735384464264,
            -0.04124629124999046,
            0.06236356869339943,
            -0.1865972876548767,
            0.2010277360677719,
            -0.18566608428955078,
            -0.02021600864827633,
            0.2885449230670929,
            0.20469467341899872,
            0.16357317566871643,
            -0.0960250049829483,
            0.21193450689315796,
            0.04206708446145058,
            -0.44152504205703735,
            0.02699962444603443,
            0.1177791953086853,
            -0.042508564889431,
            0.3458712100982666,
            0.15474313497543335,
            -0.11254025250673294,
            -0.21469266712665558,
            0.11217029392719269,
            0.04834073781967163,
            0.24571646749973297,
            -0.0690932348370552,
            0.16596005856990814,
            0.31394487619400024,
            -0.08694209903478622,
            0.036494385451078415,
            -0.021907756105065346,
            -0.07497553527355194,
            -0.0023551052436232567,
            0.17017655074596405,
            -0.032513778656721115,
            -0.18761606514453888,
            -0.10053074359893799,
            0.07293432205915451,
            0.17990286648273468,
            -0.12491987645626068,
            0.21997280418872833,
            0.15448015928268433,
            0.23537226021289825,
            -0.05392210930585861,
            -0.15997877717018127
          ],
          [
            0.2836994230747223,
            0.039692580699920654,
            0.10916049033403397,
            -0.04902026802301407,
            0.021779026836156845,
            -0.06032898277044296,
            -0.08535785228013992,
            -0.26093876361846924,
            -0.07938846945762634,
            0.02779727801680565,
            -0.04333357885479927,
            -0.2832544147968292,
            0.0487511120736599,
            0.12920105457305908,
            0.15919625759124756,
            -0.24780243635177612,
            -0.07620210945606232,
            0.18577255308628082,
            0.4161507487297058,
            -0.11552314460277557,
            -0.17663554847240448,
            0.20205903053283691,
            -0.22316314280033112,
            0.09070195257663727,
            -0.45219746232032776,
            0.058659087866544724,
            -0.0375521220266819,
            -0.3456895053386688,
            0.15758264064788818,
            -0.2503417730331421,
            0.39209887385368347,
            0.05218891426920891,
            -0.2234140783548355,
            0.291933536529541,
            -0.19362080097198486,
            0.18811403214931488,
            0.27763980627059937,
            -0.1802610605955124,
            -0.312471866607666,
            0.02438361756503582,
            -0.06542087346315384,
            -0.21557627618312836,
            -0.11794722825288773,
            -0.09581765532493591,
            -0.019697878509759903,
            0.2746942937374115,
            0.2198135107755661,
            0.3901258111000061,
            -0.2966462969779968,
            -0.021928507834672928,
            -0.13493168354034424,
            0.24346628785133362,
            0.0018695825710892677,
            0.052447736263275146,
            0.2278209924697876,
            -0.06480438262224197,
            -0.10033169388771057,
            -0.03152536600828171,
            -0.03619210049510002,
            0.21443042159080505,
            -0.14175347983837128,
            0.2713223993778229,
            -0.011301318183541298,
            0.1661946028470993
          ],
          [
            -0.17615580558776855,
            -0.03257666528224945,
            0.33251407742500305,
            0.024345530197024345,
            0.2744157612323761,
            -0.5880649089813232,
            -0.6236977577209473,
            -0.2517258822917938,
            0.11339303106069565,
            -0.18078699707984924,
            -0.21939612925052643,
            -1.3834922313690186,
            0.309790700674057,
            0.005013072397559881,
            0.06227007508277893,
            0.2556019425392151,
            0.2225455492734909,
            0.00933348573744297,
            0.03320884704589844,
            -0.4184492528438568,
            0.18736039102077484,
            0.12835592031478882,
            0.2535667419433594,
            -0.00036335669574327767,
            -0.11607067286968231,
            -0.17364580929279327,
            0.08003608137369156,
            0.03712918981909752,
            -0.3177967369556427,
            0.10661140084266663,
            0.28399625420570374,
            0.1422952264547348,
            -0.22736139595508575,
            0.3053172528743744,
            -0.21111254394054413,
            -0.13929958641529083,
            0.2497386336326599,
            -0.11372672021389008,
            -0.051715947687625885,
            0.19086164236068726,
            -1.0575896501541138,
            -0.05109700560569763,
            -1.474111795425415,
            0.10378868132829666,
            0.08467300981283188,
            -0.07147153466939926,
            0.15105725824832916,
            0.267772912979126,
            -1.3978121280670166,
            0.05206948518753052,
            -0.16071274876594543,
            0.17225225269794464,
            0.10990124940872192,
            -0.040464211255311966,
            -0.04666830971837044,
            0.21146032214164734,
            -0.11659868061542511,
            -0.22075648605823517,
            0.13633215427398682,
            0.25512412190437317,
            0.11089038848876953,
            0.3366895020008087,
            -0.1535750776529312,
            0.10153593868017197
          ],
          [
            -0.3541799485683441,
            -0.028088396415114403,
            -0.5447397232055664,
            0.22440344095230103,
            0.20999760925769806,
            0.3624027967453003,
            0.21542495489120483,
            -0.01502263080328703,
            0.22746430337429047,
            -0.046736929565668106,
            0.04197537899017334,
            0.2763307988643646,
            0.16737574338912964,
            0.10728970170021057,
            0.0473310761153698,
            -0.09584841132164001,
            0.2253393977880478,
            0.2715713083744049,
            0.09647972136735916,
            0.35037943720817566,
            0.1757001280784607,
            0.04063073918223381,
            -0.0085705341771245,
            -0.1941593438386917,
            0.012229112908244133,
            0.1310683935880661,
            -0.02031542919576168,
            0.002806571777909994,
            -0.13875223696231842,
            0.42913997173309326,
            -0.05082757771015167,
            0.18306192755699158,
            0.17077980935573578,
            -0.14739184081554413,
            0.3306119441986084,
            -0.0064437659457325935,
            0.3083426058292389,
            -0.008533578366041183,
            0.12303122878074646,
            0.2739669382572174,
            0.2741420567035675,
            -0.05284219980239868,
            0.2519336938858032,
            -0.32420358061790466,
            0.22312232851982117,
            0.1310826689004898,
            -0.19866502285003662,
            0.04184940457344055,
            0.023701010271906853,
            0.17940755188465118,
            0.027804391458630562,
            -0.18670839071273804,
            -0.3880575895309448,
            -0.07299899309873581,
            -0.16725869476795197,
            0.02870037406682968,
            0.09754867851734161,
            -0.007639209274202585,
            0.11217262595891953,
            0.2379404753446579,
            0.0715625137090683,
            -0.1572059839963913,
            -0.2621386647224426,
            0.32555830478668213
          ],
          [
            0.3015485405921936,
            0.308810293674469,
            -0.0958675891160965,
            0.16090217232704163,
            0.15557625889778137,
            -0.4159373939037323,
            -0.05129723623394966,
            0.059341635555028915,
            0.07648053765296936,
            0.07776088267564774,
            0.1873055249452591,
            -0.7569727301597595,
            -0.30083948373794556,
            0.2520701587200165,
            -0.3441195487976074,
            0.3675311803817749,
            0.0358419194817543,
            0.019192103296518326,
            -0.055519718676805496,
            -0.48668551445007324,
            0.2212584763765335,
            -0.12692870199680328,
            0.45586147904396057,
            -0.1383829563856125,
            0.33525729179382324,
            0.3163891136646271,
            0.5171213150024414,
            0.4825612008571625,
            0.9928464293479919,
            0.23454205691814423,
            0.3628993630409241,
            0.12648090720176697,
            -0.2384231686592102,
            -0.6691877245903015,
            0.4030132591724396,
            -0.1283450424671173,
            0.3371797204017639,
            0.16709862649440765,
            0.4372212290763855,
            0.06058988347649574,
            -0.5632973313331604,
            0.09357325732707977,
            -1.0750629901885986,
            0.15296140313148499,
            0.17392733693122864,
            0.1362602561712265,
            0.24314290285110474,
            0.16053563356399536,
            -0.6271944642066956,
            0.027713414281606674,
            0.12249641865491867,
            -0.3707139790058136,
            0.13291867077350616,
            -0.2772679030895233,
            -1.45579993724823,
            0.0769898071885109,
            -0.043534718453884125,
            0.044292908161878586,
            0.05905618146061897,
            0.3326641321182251,
            0.3807823657989502,
            0.5294932126998901,
            0.0814581960439682,
            0.007443112786859274
          ],
          [
            -0.5985224843025208,
            -0.1688947230577469,
            -0.22974051535129547,
            -0.1234084740281105,
            -0.5786865949630737,
            0.048353634774684906,
            -0.2311900109052658,
            -0.19007229804992676,
            -0.24362823367118835,
            0.07626443356275558,
            -0.34665876626968384,
            -0.06108486279845238,
            -0.10196416825056076,
            -0.2674100697040558,
            -0.12204216420650482,
            0.46454736590385437,
            0.07610704004764557,
            -0.22676536440849304,
            -0.5542136430740356,
            -0.12901267409324646,
            0.233101487159729,
            -0.30643701553344727,
            -0.40725234150886536,
            -0.18539626896381378,
            0.4654228091239929,
            0.21706074476242065,
            0.19218185544013977,
            0.08453476428985596,
            -0.04572917893528938,
            0.5837073922157288,
            -0.19694891571998596,
            -0.2160845398902893,
            -0.20787785947322845,
            -1.9602315425872803,
            0.3906356990337372,
            -0.000929334491956979,
            -0.3186837136745453,
            0.22934949398040771,
            0.1740204095840454,
            -0.21019835770130157,
            0.11990969628095627,
            0.17922376096248627,
            -0.16469988226890564,
            -0.09232589602470398,
            0.20594677329063416,
            -0.44976475834846497,
            0.10835244506597519,
            -0.3911946415901184,
            -0.07409180700778961,
            -0.4066932201385498,
            -0.2683755159378052,
            -0.3063161075115204,
            -0.03541674464941025,
            -0.5644213557243347,
            -0.6826120615005493,
            -0.24779517948627472,
            0.0338204987347126,
            -0.025984806939959526,
            -0.19929198920726776,
            -0.12411628663539886,
            0.23511242866516113,
            -0.011739472858607769,
            -0.1848178654909134,
            -0.22910058498382568
          ],
          [
            -0.3561423718929291,
            0.12069372087717056,
            -0.11929300427436829,
            0.13995619118213654,
            0.042442239820957184,
            -0.0693904459476471,
            -0.6479077935218811,
            -0.1814933568239212,
            -0.12546825408935547,
            0.15206964313983917,
            0.06516502052545547,
            -0.09742287546396255,
            0.02502370811998844,
            0.05125273019075394,
            0.22466489672660828,
            0.007263390813022852,
            -0.09326741099357605,
            0.17334221303462982,
            0.17902705073356628,
            -0.06869250535964966,
            0.07401756197214127,
            0.15364353358745575,
            -0.1440514326095581,
            -0.1740347295999527,
            0.279939204454422,
            0.23718661069869995,
            0.046840544790029526,
            0.30751994252204895,
            -0.1126745194196701,
            0.08409048616886139,
            -0.03782828152179718,
            0.07255638390779495,
            -0.06638861447572708,
            -0.3341716229915619,
            0.1209317147731781,
            0.2070968896150589,
            0.04808842018246651,
            0.25465425848960876,
            0.2861729860305786,
            -0.14104269444942474,
            -0.14525796473026276,
            -0.08407425880432129,
            -0.20508509874343872,
            0.1892661154270172,
            0.09743786603212357,
            0.20225711166858673,
            -0.13775669038295746,
            -0.1390303373336792,
            -0.29271945357322693,
            0.10250748693943024,
            -0.08208043873310089,
            -0.13174152374267578,
            0.14953209459781647,
            0.113502636551857,
            -0.7397494912147522,
            0.008543024770915508,
            -0.03226761519908905,
            -0.1327437311410904,
            0.029821136966347694,
            0.050518698990345,
            -0.22685709595680237,
            -0.01008683256804943,
            -0.1353231519460678,
            -0.1932976394891739
          ],
          [
            -0.741856575012207,
            0.045980993658304214,
            -1.2463006973266602,
            0.11100617051124573,
            0.2912505567073822,
            0.09445799142122269,
            0.15804214775562286,
            -0.02465851604938507,
            -0.002819760236889124,
            0.07739333808422089,
            0.20491309463977814,
            0.1821969896554947,
            0.08020347356796265,
            0.04914053529500961,
            -0.11954432725906372,
            0.16557228565216064,
            0.09852839261293411,
            0.1944373995065689,
            0.0016541928052902222,
            0.14428701996803284,
            -0.05891049653291702,
            1.3199107646942139,
            0.4396560490131378,
            -0.06851361691951752,
            -0.4429113566875458,
            0.2522280812263489,
            -0.010556771419942379,
            -0.6869505643844604,
            -0.6982969641685486,
            0.22430658340454102,
            0.01854494959115982,
            0.12128376960754395,
            -0.23469877243041992,
            -0.011130530387163162,
            0.31547048687934875,
            -0.12656155228614807,
            0.10238351672887802,
            0.28741422295570374,
            0.014260068535804749,
            0.17570598423480988,
            0.0866941288113594,
            0.03754965960979462,
            0.04129978269338608,
            -0.556799054145813,
            0.1597505658864975,
            0.0534295029938221,
            -0.6554371118545532,
            0.013827849179506302,
            0.25782284140586853,
            0.2061149626970291,
            0.0715736374258995,
            -0.21887123584747314,
            -0.2598554491996765,
            -0.006590202450752258,
            -0.1252109855413437,
            0.2723304331302643,
            0.0018294504843652248,
            -0.009930266067385674,
            -0.05638376250863075,
            0.09406038373708725,
            0.22190645337104797,
            -0.9382763504981995,
            0.10181108862161636,
            0.32675302028656006
          ],
          [
            0.25256338715553284,
            0.308368444442749,
            0.016983291134238243,
            0.21258004009723663,
            0.39668211340904236,
            -0.20900948345661163,
            -0.04462539777159691,
            -0.10849539190530777,
            0.003881859127432108,
            -0.21658745408058167,
            0.25614872574806213,
            -0.31965357065200806,
            0.028248880058526993,
            0.23645606637001038,
            0.13727593421936035,
            -0.3287356495857239,
            -0.18489687144756317,
            0.1797434389591217,
            0.4371134042739868,
            -0.20178763568401337,
            -0.03759026899933815,
            -0.09262775629758835,
            0.01658724993467331,
            -0.04632553458213806,
            -0.08056791871786118,
            -0.015742924064397812,
            -0.2682063579559326,
            -0.19144956767559052,
            -0.37806475162506104,
            -0.14612209796905518,
            0.2660468816757202,
            -0.1571737676858902,
            0.016395922750234604,
            0.599815309047699,
            -0.12194843590259552,
            -0.16767200827598572,
            0.019753551110625267,
            0.12865304946899414,
            -0.20775218307971954,
            0.3652056157588959,
            -0.19800236821174622,
            0.08221672475337982,
            -0.3495594561100006,
            0.08126261085271835,
            -0.13215601444244385,
            0.16394898295402527,
            0.02121097967028618,
            0.15420137345790863,
            -0.24344071745872498,
            0.17122036218643188,
            0.014778263866901398,
            0.07044202834367752,
            0.22469191253185272,
            -0.1047191321849823,
            0.5057761669158936,
            -0.030491536483168602,
            0.062393125146627426,
            -0.11085937917232513,
            -0.043603379279375076,
            0.30812573432922363,
            -0.23372100293636322,
            0.19126971065998077,
            -0.1354004591703415,
            0.3314060568809509
          ],
          [
            0.5669868588447571,
            -0.062472958117723465,
            0.31909337639808655,
            -0.03925120085477829,
            0.0942126214504242,
            -0.7995394468307495,
            -0.1672402024269104,
            -0.15220652520656586,
            -0.05801234021782875,
            -0.09455116093158722,
            -0.09097611904144287,
            -0.11920421570539474,
            -0.0028745834715664387,
            0.1521969735622406,
            0.07436846196651459,
            0.14847378432750702,
            -0.128426656126976,
            -0.05186563357710838,
            0.2613094747066498,
            -0.2861950993537903,
            -0.19905181229114532,
            0.09561730921268463,
            0.14293189346790314,
            -0.2013569325208664,
            0.27189379930496216,
            0.01741565763950348,
            0.21809835731983185,
            0.2727852165699005,
            0.12393725663423538,
            -0.01660442352294922,
            0.2508099675178528,
            -0.0031507809180766344,
            0.013865437358617783,
            -0.2369060218334198,
            0.28957128524780273,
            0.17053478956222534,
            0.14133740961551666,
            0.18116174638271332,
            -0.0228281170129776,
            -0.08756522089242935,
            -0.14820162951946259,
            -0.20514792203903198,
            0.04129387438297272,
            0.3404112160205841,
            0.25092047452926636,
            -0.06858286261558533,
            0.12052210420370102,
            0.101724773645401,
            -0.06858780980110168,
            -0.08380017429590225,
            0.15775620937347412,
            -0.12742683291435242,
            -0.11718618124723434,
            -0.1241309642791748,
            0.05508648604154587,
            0.25924167037010193,
            0.13138322532176971,
            0.17264710366725922,
            0.18288718163967133,
            0.059991151094436646,
            -0.04704950004816055,
            0.1605948507785797,
            -0.06577247381210327,
            0.08692383021116257
          ],
          [
            -0.023533357307314873,
            0.2842442989349365,
            -0.25699353218078613,
            0.34777939319610596,
            0.3316628634929657,
            0.23975913226604462,
            0.09337437897920609,
            -0.1670052856206894,
            0.3207525610923767,
            -0.17963899672031403,
            0.22279207408428192,
            0.1607341319322586,
            -0.16043570637702942,
            0.3596460223197937,
            -0.3096717596054077,
            0.5085826516151428,
            0.17536960542201996,
            0.19031041860580444,
            0.34384217858314514,
            0.23944130539894104,
            0.154369056224823,
            0.02560047246515751,
            0.07649460434913635,
            0.1017063707113266,
            0.054390743374824524,
            0.1426393836736679,
            0.046487919986248016,
            -0.07413806766271591,
            -0.037319790571928024,
            0.3381422162055969,
            0.06400009989738464,
            0.38715046644210815,
            -0.15678563714027405,
            -0.3452489674091339,
            0.21323613822460175,
            -0.19883279502391815,
            0.11067476868629456,
            0.21251049637794495,
            0.5009440779685974,
            0.3734722137451172,
            0.10392115265130997,
            0.06974990665912628,
            0.07666803151369095,
            -0.043168630450963974,
            0.3455900549888611,
            0.22119565308094025,
            -0.019585978239774704,
            0.26573672890663147,
            0.29157161712646484,
            0.3550513684749603,
            0.04409679397940636,
            -0.3126036822795868,
            -0.061995189636945724,
            0.08786959201097488,
            -0.16531157493591309,
            0.2146170735359192,
            0.4331813454627991,
            -0.05804566666483879,
            0.27488642930984497,
            -0.0010380793828517199,
            0.36125648021698,
            0.5871321558952332,
            0.15215247869491577,
            0.15340647101402283
          ],
          [
            -0.2849317789077759,
            0.0040638381615281105,
            -0.4030854403972626,
            0.012535836547613144,
            0.08936915546655655,
            0.25625941157341003,
            0.0744742900133133,
            -0.07989849895238876,
            -0.009024528786540031,
            -0.14330685138702393,
            -0.07797582447528839,
            0.07557209581136703,
            0.2243482768535614,
            -0.2678573727607727,
            -0.034428857266902924,
            0.3556068241596222,
            -0.16990458965301514,
            -0.010954117402434349,
            0.009262371808290482,
            0.17167878150939941,
            -0.2735358476638794,
            0.12889918684959412,
            0.019572339951992035,
            0.12193481624126434,
            0.016338244080543518,
            -0.13741527497768402,
            0.04798903316259384,
            -0.08874262869358063,
            0.1829579621553421,
            0.336580753326416,
            -0.17546169459819794,
            0.14794354140758514,
            -0.06744860857725143,
            -0.07013830542564392,
            0.08828321099281311,
            -0.19840587675571442,
            0.16605409979820251,
            0.05459276959300041,
            0.2862965166568756,
            0.02299431338906288,
            -0.048818208277225494,
            0.09490285813808441,
            0.007520565763115883,
            -0.11643112450838089,
            0.0738748162984848,
            -0.17136824131011963,
            -0.5255951881408691,
            0.08066076040267944,
            0.22406062483787537,
            0.2702948749065399,
            0.22350679337978363,
            0.037232764065265656,
            -0.09699986129999161,
            0.30344438552856445,
            -0.28916943073272705,
            0.08914545178413391,
            -0.11457063257694244,
            0.1670200228691101,
            -0.10400807857513428,
            0.0907115638256073,
            -0.10308222472667694,
            0.23028378188610077,
            -0.1617407202720642,
            -0.005087618250399828
          ],
          [
            -0.06027675047516823,
            -0.009736753068864346,
            0.3406944274902344,
            -0.2556394338607788,
            0.2002621740102768,
            -0.2567233145236969,
            -0.3589076101779938,
            0.13661152124404907,
            0.05621262639760971,
            -0.12370419502258301,
            -0.03141934052109718,
            -0.3821215331554413,
            0.12549825012683868,
            -0.22619101405143738,
            0.31844112277030945,
            -0.07251598685979843,
            0.23914572596549988,
            -0.03731546178460121,
            0.20495885610580444,
            -0.285567045211792,
            -0.030550098046660423,
            0.16428668797016144,
            0.00491147767752409,
            -0.015420493669807911,
            -0.1095232293009758,
            -0.1841338574886322,
            -0.19532433152198792,
            -0.1812707632780075,
            0.10804268717765808,
            -0.18591386079788208,
            0.14317145943641663,
            0.18271338939666748,
            0.1848067045211792,
            0.07456234842538834,
            -0.1504172682762146,
            -0.15937957167625427,
            -0.027480388060212135,
            -0.018363337963819504,
            -0.11849718540906906,
            0.20277483761310577,
            -0.27723783254623413,
            0.12385834753513336,
            -0.21791450679302216,
            0.00031857803696766496,
            -0.12621167302131653,
            -0.2783067524433136,
            0.06737475097179413,
            0.23239991068840027,
            -0.407580703496933,
            -0.24577680230140686,
            0.122230663895607,
            0.28835535049438477,
            -0.013291488401591778,
            -0.22569173574447632,
            -0.06345254182815552,
            -0.08704739809036255,
            0.011121943593025208,
            -0.1772737354040146,
            -0.2390304058790207,
            -0.16924522817134857,
            0.17194977402687073,
            0.029161665588617325,
            -0.22407186031341553,
            0.17990872263908386
          ],
          [
            -0.32156506180763245,
            0.14074376225471497,
            -0.16526536643505096,
            0.15582863986492157,
            0.30080875754356384,
            0.39261865615844727,
            0.5668438076972961,
            0.1430806964635849,
            0.15105478465557098,
            -0.11713579297065735,
            -0.23777863383293152,
            0.4606727063655853,
            0.3016320765018463,
            0.14307866990566254,
            0.30922767519950867,
            -0.21317905187606812,
            0.241581991314888,
            -0.15244100987911224,
            0.002974603557959199,
            0.5366601347923279,
            0.04462298005819321,
            -0.07336306571960449,
            0.22427305579185486,
            -0.04001711308956146,
            0.04646958410739899,
            0.09167826920747757,
            -0.07543489336967468,
            -0.14375227689743042,
            0.2556432783603668,
            0.05481935292482376,
            0.1369207203388214,
            0.08786457777023315,
            -0.14853264391422272,
            0.3175496757030487,
            0.08918961137533188,
            -0.19576731324195862,
            0.22878621518611908,
            0.29377761483192444,
            0.2290552258491516,
            0.009344134479761124,
            0.31860342621803284,
            -0.11907713860273361,
            0.3894161283969879,
            -0.1247318685054779,
            0.06366927176713943,
            -0.15543001890182495,
            -0.2736656367778778,
            0.28905221819877625,
            0.5203725099563599,
            -0.05259222909808159,
            0.22029481828212738,
            0.019386034458875656,
            -0.010936428792774677,
            0.0730195865035057,
            -1.1475063562393188,
            -0.10420957952737808,
            0.015069530345499516,
            0.050774089992046356,
            0.22326163947582245,
            0.26895883679389954,
            0.16495566070079803,
            -0.15731510519981384,
            0.03411495313048363,
            0.10042435675859451
          ],
          [
            0.13231253623962402,
            -0.0040018269792199135,
            0.16180512309074402,
            0.27475425601005554,
            0.18307814002037048,
            0.07304523885250092,
            -0.06224563345313072,
            -0.19354715943336487,
            0.0827709212899208,
            0.1568477600812912,
            0.18758638203144073,
            -0.19345730543136597,
            0.17304253578186035,
            -0.022585049271583557,
            0.3579704761505127,
            -0.3238537609577179,
            0.12355487048625946,
            0.13980701565742493,
            0.28996679186820984,
            -0.10268155485391617,
            -0.05780135095119476,
            -0.13419833779335022,
            0.11279988288879395,
            -0.02389274537563324,
            -0.3446155786514282,
            -0.19986703991889954,
            -0.015536581166088581,
            0.12658895552158356,
            -0.5049452781677246,
            -0.10247830301523209,
            0.23418028652668,
            0.07006988674402237,
            0.1614913046360016,
            0.5119484663009644,
            -0.41995882987976074,
            0.01687455177307129,
            -0.054764896631240845,
            0.005451240576803684,
            -0.001380564528517425,
            0.015262842178344727,
            -0.3160729706287384,
            -0.06672552227973938,
            -0.05427553877234459,
            -0.2148134857416153,
            0.07618661969900131,
            0.22442016005516052,
            -0.02175052836537361,
            0.38116657733917236,
            -0.005355463363230228,
            0.07695332169532776,
            -0.2590852379798889,
            0.0790870264172554,
            0.3234499394893646,
            -0.15644986927509308,
            0.7101435661315918,
            -0.2872367799282074,
            -0.24537329375743866,
            0.03217898681759834,
            -0.030982140451669693,
            -0.01821094937622547,
            -0.050447363406419754,
            0.25298792123794556,
            0.08515532314777374,
            0.07785648852586746
          ],
          [
            -0.10921104997396469,
            0.29100272059440613,
            -0.22132350504398346,
            0.02326771803200245,
            0.2680589258670807,
            1.4558619260787964,
            1.4678468704223633,
            0.0953264981508255,
            -0.1338019222021103,
            0.036327265202999115,
            -0.2361624389886856,
            1.182956576347351,
            0.10648684948682785,
            0.09361016005277634,
            -0.020078493282198906,
            0.4394320249557495,
            0.31103214621543884,
            -0.24709664285182953,
            0.23313935101032257,
            1.192133903503418,
            0.15580563247203827,
            -0.02677929773926735,
            -0.011327233165502548,
            -0.1574644297361374,
            -0.060357775539159775,
            0.3452579975128174,
            0.18295331299304962,
            0.17189273238182068,
            0.13220684230327606,
            0.13639618456363678,
            0.2453468143939972,
            0.04806891083717346,
            0.04614977538585663,
            -0.6430306434631348,
            0.32184070348739624,
            -0.15537118911743164,
            -0.11887158453464508,
            0.3321622908115387,
            0.1282552033662796,
            0.05183985084295273,
            0.9210734367370605,
            -0.15119704604148865,
            1.1869372129440308,
            0.2769603729248047,
            0.2593146562576294,
            -0.1749362200498581,
            -0.06694971024990082,
            0.13316476345062256,
            1.2353320121765137,
            0.15300272405147552,
            -0.21896293759346008,
            0.2261286824941635,
            0.06339490413665771,
            -0.3485114574432373,
            -0.18659617006778717,
            0.08861857652664185,
            0.14649440348148346,
            -0.0073434943333268166,
            0.23011963069438934,
            0.26500657200813293,
            0.14370767772197723,
            0.0239265039563179,
            -0.25502288341522217,
            0.22424226999282837
          ],
          [
            -0.18530400097370148,
            -0.09307964146137238,
            -0.9439795613288879,
            -0.07084187865257263,
            0.3100792169570923,
            -0.0362570621073246,
            0.3582497537136078,
            0.03814252093434334,
            0.04623798653483391,
            -0.0638091191649437,
            0.08655739575624466,
            0.14941048622131348,
            0.10839764773845673,
            0.22383403778076172,
            0.052563998848199844,
            -0.04949178546667099,
            0.012326947413384914,
            -0.029164927080273628,
            0.1723201721906662,
            0.3912062346935272,
            0.21908408403396606,
            0.2330045998096466,
            0.06776542216539383,
            0.04653991758823395,
            -0.05664252117276192,
            -0.018878890201449394,
            -0.2734003961086273,
            -0.21398308873176575,
            -0.0036632386036217213,
            0.14149858057498932,
            0.23482710123062134,
            0.21357198059558868,
            -0.21440331637859344,
            0.0143088074401021,
            0.2976575493812561,
            -0.13500384986400604,
            -0.040655605494976044,
            0.2921789884567261,
            0.3266473412513733,
            0.1606805920600891,
            0.019291827455163002,
            0.12381984293460846,
            0.08065696805715561,
            -0.2937842607498169,
            -0.011847504414618015,
            0.04047180712223053,
            -1.0015919208526611,
            0.07277552038431168,
            0.10408830642700195,
            0.2711336314678192,
            0.09962097555398941,
            0.04616604745388031,
            0.1822875738143921,
            -0.11602029204368591,
            0.01661497727036476,
            -0.03332978114485741,
            0.0893576443195343,
            0.15598398447036743,
            -0.0631808340549469,
            0.3186655342578888,
            0.02638598531484604,
            0.030266430228948593,
            0.11515599489212036,
            0.16006217896938324
          ],
          [
            0.9965729713439941,
            0.4469253122806549,
            0.13335895538330078,
            0.5443694591522217,
            0.2815873622894287,
            0.21819937229156494,
            0.46366819739341736,
            0.0014744977233931422,
            0.20555289089679718,
            0.054698411375284195,
            0.1493046134710312,
            0.20070195198059082,
            -0.4624139666557312,
            0.6089146733283997,
            -0.6000670790672302,
            0.49224939942359924,
            0.27192988991737366,
            0.31066298484802246,
            -0.06772133708000183,
            0.18986737728118896,
            0.18659090995788574,
            -0.10891556739807129,
            0.5357244610786438,
            0.19364099204540253,
            -0.01340858917683363,
            0.1141311377286911,
            0.4125334620475769,
            -1.151426076889038,
            0.4227442443370819,
            0.3693912625312805,
            0.1887388527393341,
            0.3072377145290375,
            0.09142526239156723,
            -0.5055957436561584,
            0.2876875698566437,
            0.12047795206308365,
            0.2506945729255676,
            0.20920105278491974,
            0.07436485588550568,
            0.2753201425075531,
            0.14453978836536407,
            0.11876149475574493,
            0.4598604142665863,
            -1.0113956928253174,
            0.3174010217189789,
            0.24931539595127106,
            -0.14809797704219818,
            -0.08028320968151093,
            0.43668216466903687,
            0.4217737317085266,
            0.08525240421295166,
            -0.1537942737340927,
            -0.32481011748313904,
            -0.0679389163851738,
            -0.2992691099643707,
            0.42266926169395447,
            0.39327260851860046,
            -0.10779173672199249,
            0.27396050095558167,
            0.20267368853092194,
            0.42344754934310913,
            0.6022968888282776,
            0.1552467942237854,
            0.4288165867328644
          ],
          [
            0.0034901604522019625,
            -0.1614087074995041,
            -0.9200899004936218,
            -0.23780310153961182,
            -0.06182381510734558,
            0.07690568268299103,
            0.1777319461107254,
            0.1397215723991394,
            0.07569199055433273,
            -0.17203456163406372,
            0.1399780660867691,
            -0.04054385423660278,
            0.292087197303772,
            -0.023156331852078438,
            0.3213776648044586,
            -0.33021602034568787,
            -0.2489653378725052,
            -0.004183449316769838,
            0.13821570575237274,
            0.2080688327550888,
            -0.02382284216582775,
            -1.0167046785354614,
            -0.08534901589155197,
            -0.20573018491268158,
            -0.5818811058998108,
            0.014077962376177311,
            -0.18257200717926025,
            -0.8335871696472168,
            -0.4364987015724182,
            -0.030368950217962265,
            0.19731412827968597,
            -0.029423892498016357,
            -0.09060946851968765,
            -0.10959121584892273,
            -0.1383475810289383,
            -0.21548157930374146,
            0.08463410288095474,
